digraph Tree {
node [shape=box, style="filled, rounded", color="black", fontname=helvetica] ;
edge [fontname=helvetica] ;
0 [label="period <= 11.5\ngini = 0.5\nsamples = 1578\nvalue = [786, 792]\nclass = quit", fillcolor="#399de502"] ;
1 [label="count_1 <= 5.5\ngini = 0.386\nsamples = 955\nvalue = [249, 706]\nclass = quit", fillcolor="#399de5a5"] ;
0 -> 1 [labeldistance=2.5, labelangle=45, headlabel="True"] ;
2 [label="count_1 <= 4.5\ngini = 0.045\nsamples = 607\nvalue = [14, 593]\nclass = quit", fillcolor="#399de5f9"] ;
1 -> 2 ;
3 [label="class_name_デイタイム <= 0.5\ngini = 0.008\nsamples = 512\nvalue = [2, 510]\nclass = quit", fillcolor="#399de5fe"] ;
2 -> 3 ;
4 [label="gini = 0.0\nsamples = 389\nvalue = [0, 389]\nclass = quit", fillcolor="#399de5ff"] ;
3 -> 4 ;
5 [label="count_1 <= 3.5\ngini = 0.032\nsamples = 123\nvalue = [2, 121]\nclass = quit", fillcolor="#399de5fb"] ;
3 -> 5 ;
6 [label="gini = 0.0\nsamples = 93\nvalue = [0, 93]\nclass = quit", fillcolor="#399de5ff"] ;
5 -> 6 ;
7 [label="gini = 0.124\nsamples = 30\nvalue = [2, 28]\nclass = quit", fillcolor="#399de5ed"] ;
5 -> 7 ;
8 [label="period <= 7.5\ngini = 0.221\nsamples = 95\nvalue = [12, 83]\nclass = quit", fillcolor="#399de5da"] ;
2 -> 8 ;
9 [label="period <= 0.5\ngini = 0.108\nsamples = 70\nvalue = [4, 66]\nclass = quit", fillcolor="#399de5f0"] ;
8 -> 9 ;
10 [label="gini = 0.0\nsamples = 1\nvalue = [1, 0]\nclass = continue", fillcolor="#e58139ff"] ;
9 -> 10 ;
11 [label="gini = 0.083\nsamples = 69\nvalue = [3, 66]\nclass = quit", fillcolor="#399de5f3"] ;
9 -> 11 ;
12 [label="routine_flg <= 0.5\ngini = 0.435\nsamples = 25\nvalue = [8, 17]\nclass = quit", fillcolor="#399de587"] ;
8 -> 12 ;
13 [label="gini = 0.0\nsamples = 6\nvalue = [0, 6]\nclass = quit", fillcolor="#399de5ff"] ;
12 -> 13 ;
14 [label="gini = 0.488\nsamples = 19\nvalue = [8, 11]\nclass = quit", fillcolor="#399de546"] ;
12 -> 14 ;
15 [label="routine_flg <= 0.5\ngini = 0.439\nsamples = 348\nvalue = [235, 113]\nclass = continue", fillcolor="#e5813984"] ;
1 -> 15 ;
16 [label="campaign_id_CA2 <= 0.5\ngini = 0.088\nsamples = 65\nvalue = [3, 62]\nclass = quit", fillcolor="#399de5f3"] ;
15 -> 16 ;
17 [label="campaign_id_CA3 <= 0.5\ngini = 0.127\nsamples = 44\nvalue = [3, 41]\nclass = quit", fillcolor="#399de5ec"] ;
16 -> 17 ;
18 [label="gini = 0.219\nsamples = 24\nvalue = [3, 21]\nclass = quit", fillcolor="#399de5db"] ;
17 -> 18 ;
19 [label="gini = 0.0\nsamples = 20\nvalue = [0, 20]\nclass = quit", fillcolor="#399de5ff"] ;
17 -> 19 ;
20 [label="gini = 0.0\nsamples = 21\nvalue = [0, 21]\nclass = quit", fillcolor="#399de5ff"] ;
16 -> 20 ;
21 [label="count_1 <= 6.5\ngini = 0.295\nsamples = 283\nvalue = [232, 51]\nclass = continue", fillcolor="#e58139c7"] ;
15 -> 21 ;
22 [label="campaign_id_CA2 <= 0.5\ngini = 0.494\nsamples = 56\nvalue = [31, 25]\nclass = continue", fillcolor="#e5813931"] ;
21 -> 22 ;
23 [label="gini = 0.463\nsamples = 44\nvalue = [28, 16]\nclass = continue", fillcolor="#e581396d"] ;
22 -> 23 ;
24 [label="gini = 0.375\nsamples = 12\nvalue = [3, 9]\nclass = quit", fillcolor="#399de5aa"] ;
22 -> 24 ;
25 [label="period <= 0.5\ngini = 0.203\nsamples = 227\nvalue = [201, 26]\nclass = continue", fillcolor="#e58139de"] ;
21 -> 25 ;
26 [label="gini = 0.401\nsamples = 54\nvalue = [39, 15]\nclass = continue", fillcolor="#e581399d"] ;
25 -> 26 ;
27 [label="gini = 0.119\nsamples = 173\nvalue = [162, 11]\nclass = continue", fillcolor="#e58139ee"] ;
25 -> 27 ;
28 [label="period <= 22.5\ngini = 0.238\nsamples = 623\nvalue = [537, 86]\nclass = continue", fillcolor="#e58139d6"] ;
0 -> 28 [labeldistance=2.5, labelangle=-45, headlabel="False"] ;
29 [label="count_1 <= 4.5\ngini = 0.411\nsamples = 298\nvalue = [212, 86]\nclass = continue", fillcolor="#e5813998"] ;
28 -> 29 ;
30 [label="count_1 <= 3.5\ngini = 0.484\nsamples = 127\nvalue = [52, 75]\nclass = quit", fillcolor="#399de54e"] ;
29 -> 30 ;
31 [label="period <= 13.5\ngini = 0.416\nsamples = 78\nvalue = [23, 55]\nclass = quit", fillcolor="#399de594"] ;
30 -> 31 ;
32 [label="gini = 0.0\nsamples = 12\nvalue = [0, 12]\nclass = quit", fillcolor="#399de5ff"] ;
31 -> 32 ;
33 [label="gini = 0.454\nsamples = 66\nvalue = [23, 43]\nclass = quit", fillcolor="#399de577"] ;
31 -> 33 ;
34 [label="class_name_デイタイム <= 0.5\ngini = 0.483\nsamples = 49\nvalue = [29, 20]\nclass = continue", fillcolor="#e581394f"] ;
30 -> 34 ;
35 [label="gini = 0.45\nsamples = 38\nvalue = [25, 13]\nclass = continue", fillcolor="#e581397a"] ;
34 -> 35 ;
36 [label="gini = 0.463\nsamples = 11\nvalue = [4, 7]\nclass = quit", fillcolor="#399de56d"] ;
34 -> 36 ;
37 [label="routine_flg <= 0.5\ngini = 0.12\nsamples = 171\nvalue = [160, 11]\nclass = continue", fillcolor="#e58139ed"] ;
29 -> 37 ;
38 [label="gini = 0.0\nsamples = 1\nvalue = [0, 1]\nclass = quit", fillcolor="#399de5ff"] ;
37 -> 38 ;
39 [label="count_1 <= 5.5\ngini = 0.111\nsamples = 170\nvalue = [160, 10]\nclass = continue", fillcolor="#e58139ef"] ;
37 -> 39 ;
40 [label="gini = 0.219\nsamples = 56\nvalue = [49, 7]\nclass = continue", fillcolor="#e58139db"] ;
39 -> 40 ;
41 [label="gini = 0.051\nsamples = 114\nvalue = [111, 3]\nclass = continue", fillcolor="#e58139f8"] ;
39 -> 41 ;
42 [label="gini = 0.0\nsamples = 325\nvalue = [325, 0]\nclass = continue", fillcolor="#e58139ff"] ;
28 -> 42 ;
}